#ifndef __LAYER_WEIGHTS_1_INT__H_
#define __LAYER_WEIGHTS_1_INT__H_



#define layer_1_scaling_factor  14
signed char weights_layer_1[8200]={
-58, -24, -80, -64, -29, -64, -17, -68, -3, -4, -22, -84, -16, -71, 25, -3, 
-5, -79, -40, -10, -43, -43, -5, -55, -84, -17, -85, -8, -32, 4, -11, -16, 
47, -47, 79, -24, 82, -45, 16, -24, 27, -5, 29, 75, -76, -52, -9, 23, 
-41, 85, -35, 79, -17, 21, -81, 19, -61, 53, 81, -83, -17, 32, -80, 3, 
84, -3, -41, 32, 15, -10, -69, 20, -63, -86, 48, 22, 6, -42, 3, 7, 
-37, -14, 51, 78, 0, -29, 23, -1, -74, 39, -21, 36, -40, 16, 31, -44, 
53, 74, 73, -11, 53, -46, -5, 31, 3, -69, 70, 58, -19, -77, 86, -66, 
-23, -57, 78, -58, 79, 71, -40, 11, -23, -41, 4, -84, -62, -28, 23, -51, 
41, 33, 21, 35, -44, -68, -80, -29, 49, 70, -51, 21, -40, -38, -59, -9, 
56, -14, 78, 45, 57, 17, 44, -54, 12, 46, 52, 43, -32, 8, -68, 37, 
17, -54, 23, 76, -6, -71, -30, -49, -70, -3, -70, -43, 66, 29, -20, 56, 
-43, 0, 33, 16, -84, -51, 51, -7, -39, 4, 3, 79, -85, 57, 4, 0, 
-2, -81, 27, 77, -52, 79, -31, 67, -27, -51, -35, -40, -27, -39, 11, -82, 
23, -57, 64, -12, 84, 38, -7, -77, 35, -17, -20, 34, -84, 58, -35, 20, 
37, 51, 36, 20, -65, -41, -73, -7, 16, -51, 55, 12, -37, 9, 11, -10, 
-2, 53, -34, -73, 40, -81, 65, 83, -63, 91, -40, -34, 27, -9, 24, 93, 
87, 8, 63, 65, -52, -67, 36, -20, 57, 90, 57, -35, -22, 25, -32, 25, 
67, -45, 70, -51, 86, 71, 30, 45, 67, 0, 58, -31, 57, -11, 79, 49, 
-7, -55, 67, 4, 75, -68, 21, -29, 65, -73, 85, -38, 100, -61, -49, -56, 
-54, 22, -45, 88, 90, 32, -27, -48, 0, 15, 66, -20, 74, 33, -18, 45, 
-27, 75, 71, 11, -57, 72, 65, -57, -16, 74, 44, 72, 52, -41, -56, 50, 
-6, 48, -48, 5, -13, -67, -11, -76, -41, -19, 6, 66, 31, 13, -6, 1, 
64, -81, 69, 20, 81, -14, 27, 55, -63, -40, 19, -34, 51, -6, 61, 31, 
-84, -28, -75, -29, 38, -55, 57, 9, 58, -24, -31, 73, 59, -23, -56, -6, 
40, -41, 1, 62, -53, -13, 5, -55, 12, -53, -48, 35, -71, -1, 76, 79, 
-68, -59, 29, -73, 11, -17, 19, -39, 6, 23, 1, -49, -78, -72, 32, -47, 
65, 39, -78, 0, -51, 61, 72, 5, -37, 39, 74, -26, -84, -44, 11, -54, 
59, -19, -8, 53, 72, -83, 6, -62, 23, -69, -9, -39, 66, -46, 57, 29, 
51, 57, -4, 66, -13, 65, 40, -9, -83, 24, 69, 36, -3, 5, 61, 81, 
-36, -18, -24, -25, -53, 57, 78, 72, 9, 7, -71, 83, -13, 9, 28, -78, 
-2, -20, 64, -36, -71, 39, -59, -8, 40, -30, -32, 31, -32, 74, -68, -46, 
66, -55, -3, -42, 54, 50, 69, -41, -48, -85, 57, -55, -11, 74, 10, 10, 
-39, -82, 2, -65, -49, 11, -49, -44, 39, -74, 6, 45, 27, -56, 28, 27, 
57, -2, 58, -10, 68, -81, 0, -30, 63, 46, -37, -81, 75, -35, 55, 0, 
1, 21, -68, 82, 15, -77, 50, -33, 7, -13, 11, 31, -10, 17, 77, 30, 
-52, -83, -51, -12, -48, -20, -84, -22, 25, -7, 56, -52, -51, 53, -52, -72, 
-26, 46, 75, 13, 15, -22, -86, 54, -47, -44, -49, 59, -81, 9, -49, -12, 
10, -73, 7, -56, 28, 54, -11, 57, 9, 38, -23, 9, 40, 56, 26, 3, 
-42, -73, 32, -9, 25, -69, -59, -34, -83, 2, -57, -31, -36, 53, -55, 45, 
19, -60, 28, 51, 26, -46, 61, -24, -15, 5, -76, -29, -7, 66, -73, 8, 
-30, 42, 20, 54, 85, -41, -38, 65, 75, 39, 23, -14, 72, -69, -27, -66, 
67, 17, 36, 67, 41, 81, -13, 106, 49, 67, 79, -65, 20, 36, -6, 31, 
-60, -50, 111, 4, 74, 68, -31, -65, 32, 58, 80, 93, 56, 96, -21, 57, 
-78, 22, 83, -3, 17, 93, 9, -43, 10, 10, -75, -54, -41, -6, -47, 50, 
-72, 26, -87, -24, 92, -5, -53, 96, 40, 77, 23, -74, -36, 7, 42, -21, 
-12, 77, -46, 60, 38, 14, -54, -8, 71, 28, -31, 22, 86, -33, 48, 60, 
77, -34, 46, 73, -10, -8, 32, 21, -19, 41, 52, 70, -27, -72, 21, -32, 
36, -48, -60, 63, 39, 69, 87, 31, 10, -63, -11, -65, 87, -34, 6, 28, 
-64, -29, 48, -61, -32, -24, -18, 87, -80, 4, -17, 41, -63, 59, 13, 15, 
-43, -16, 27, 58, 60, 0, -19, 27, 5, 57, -62, 31, -52, -47, 57, -38, 
60, 14, 91, -23, -26, 4, -6, 2, 23, 28, -33, 75, -30, 61, -54, 17, 
77, -48, -45, 86, 43, -17, 83, -66, 0, -69, -34, 1, -52, 29, -14, 20, 
-40, 36, -59, 18, 12, -25, -34, -53, -43, -54, 56, 35, -58, 53, 85, -81, 
14, 79, 20, 67, 61, 45, 44, -18, -64, 39, -3, -68, 33, 56, -16, -32, 
16, -45, -70, 22, 54, -12, 28, 36, 4, 78, 48, -4, -64, -42, 48, -22, 
-31, -53, -74, -51, 79, -17, 76, -43, -36, 71, 70, 44, -7, 38, -10, -76, 
71, 43, 82, 45, -32, 86, 10, 19, -82, 78, 62, 0, -80, -64, -9, 40, 
-27, -44, 28, -18, -62, -15, 17, 5, -20, 57, 76, 19, 56, -20, -78, 22, 
71, -48, -65, 6, -66, 27, 76, -79, 69, -64, 75, 30, 42, -11, -49, 74, 
-60, -86, -30, -19, -51, -55, -47, 73, -36, -35, 59, -8, 77, 40, 33, -27, 
28, -63, 11, -38, -7, -29, -30, 41, -11, 2, -83, 0, -42, 26, 65, 42, 
-40, 10, -68, 1, 77, -63, -83, 82, -49, 44, -10, 31, -71, -10, -88, 5, 
0, 38, 25, -52, -7, 20, -51, -78, 59, 0, -41, 75, -30, 70, 72, 77, 
-42, 48, 17, -27, 32, -45, 31, 17, -59, -39, -35, -49, -8, -11, 56, 58, 
-61, 73, -75, -3, 15, -21, -79, -73, -54, -52, 84, -28, 27, -42, -36, 42, 
65, 35, 66, -7, 1, 15, -6, -18, 42, -51, 53, 14, 68, 72, 20, 44, 
-63, 43, 58, -41, -26, 42, -22, -39, 40, -74, -23, -5, 21, 59, -8, -80, 
59, 51, -47, -59, 24, -4, 59, -54, 86, -17, -75, -79, -40, 17, 75, -52, 
-41, 20, -29, 48, 56, -31, 75, 47, 22, 31, 50, 65, -17, 44, 35, 64, 
-78, 28, -41, 69, 26, -68, -81, -17, -2, 27, 84, 17, 36, -35, 75, -22, 
37, -40, -10, -52, 71, 0, -47, -50, -17, 61, 61, -80, 74, -26, -10, -79, 
42, -30, -65, 16, 8, -77, -6, -6, 77, 40, -57, -13, -45, 23, 31, 15, 
56, 67, -66, -70, -33, 27, 66, 63, 14, 34, 21, 78, 7, 33, -36, -65, 
24, 21, 74, -7, -83, -69, -65, -14, 18, 75, 35, 5, -8, -16, -56, 28, 
-16, -66, -79, -32, 63, 23, 11, 36, 25, 44, 4, -24, 80, 0, -3, 8, 
-44, 75, 59, -44, 77, 24, 61, -59, -79, 43, -11, -28, -6, 13, 78, 39, 
-42, -27, -24, 20, 52, 37, 32, 0, -76, -39, -14, -65, 20, -10, 10, -20, 
-9, -27, 32, -10, 61, -73, 63, -64, -52, -14, -53, -34, 73, -14, 42, 70, 
70, 4, 0, 0, -86, 83, -49, -52, 75, 7, -48, 43, 0, 0, 81, 49, 
-8, 32, 62, -12, -28, -35, -70, 13, -39, -29, 33, -38, 18, -82, -44, 58, 
-52, -43, -5, 43, 28, -21, -18, -34, -84, 19, -13, -37, -8, 18, 8, -32, 
-30, 24, 32, -69, -16, 19, 53, -25, 7, -42, -67, -1, 2, -42, -65, -13, 
-40, -11, -74, 20, 32, -15, -10, 6, 13, 11, 37, 29, 52, -10, 54, 84, 
56, -25, 77, 81, 89, 5, 23, 28, 22, 27, -47, -13, -43, 39, -23, 53, 
78, 18, 49, -54, 90, 37, -29, -85, -65, -50, 75, 67, -34, 63, -16, -67, 
46, -29, -44, -59, -69, -41, -18, 73, -12, -62, -25, 49, -5, 62, -71, -16, 
48, 51, -6, -32, 70, 74, -49, -31, -21, -73, -66, -37, -71, 16, -13, -74, 
-2, 10, -18, 43, 101, 3, -47, -16, -26, 68, 12, 20, -15, 41, 16, 52, 
-18, 19, 69, 92, 19, -31, 90, -15, 79, -23, -64, 16, 49, 49, 62, -1, 
83, 0, -75, 35, 39, -6, -24, 102, 20, 82, 73, 1, -49, 89, 48, -51, 
94, -60, 57, -34, 84, -56, -60, -43, 73, 22, -8, -78, 36, 28, 70, 64, 
-47, 10, -24, 23, -60, -4, 22, 29, 77, -39, -28, 103, 93, 57, 72, -28, 
0, 100, 26, 53, 38, 12, 78, 85, -74, 1, 66, -37, -7, 25, -77, -49, 
-44, 47, 37, -66, -24, 87, -10, 66, -43, -38, 44, 65, -53, 70, -63, -75, 
67, 73, 61, 76, 60, 1, -41, 13, 24, -38, 8, -46, -61, -59, -43, -25, 
-20, 48, -77, 72, -74, -69, -55, 65, 16, 7, 60, 24, 16, -38, -46, 54, 
77, 3, -54, 79, -55, -80, -41, -74, -44, -51, -12, 56, -2, 71, 20, -40, 
30, 28, 74, 15, 18, 84, -82, -79, -31, -39, 11, -35, 58, 22, -54, 6, 
1, 4, 69, 71, -45, 34, -13, 52, 41, -30, 18, -75, -17, -40, 78, -55, 
-20, -47, -26, 56, -21, -27, 27, 9, -25, 70, -59, -76, -28, 51, -50, -58, 
-24, 83, 79, 27, -18, 6, 74, 71, 63, 55, 16, 45, -4, -52, -47, 27, 
77, -78, -52, 81, 13, 54, 12, 18, 47, 7, 71, -56, -35, -43, -9, -57, 
79, -71, -12, 55, -45, -29, -38, -18, -85, 51, -15, -67, -81, -44, -45, 67, 
-4, -74, 12, 29, 52, 70, 14, 45, -10, 11, 59, -63, 41, 32, -56, -44, 
53, -34, -33, -20, 14, -70, -20, 30, 50, 70, -5, 29, 8, -15, -46, 30, 
75, -68, -5, -13, -67, 3, 42, -75, -69, -51, 15, 75, -14, 48, -39, -75, 
-86, -78, 23, 51, -65, -68, 49, -34, -21, 42, 25, -32, 45, 81, 9, -32, 
-19, 32, 27, 16, 55, -57, -21, -11, -70, -5, -15, -56, -38, -34, 4, 46, 
-6, 71, -46, 9, -47, -41, 45, 77, 64, 68, -6, -5, -86, 15, -78, -70, 
30, 38, -41, 76, 26, -61, 62, -11, 59, -32, 19, 31, 56, -7, -42, 16, 
20, 53, 73, -69, -45, 34, 11, -17, -8, -26, 15, 43, 60, -5, -53, -86, 
-17, 68, 70, 31, 55, -8, -20, 23, -20, 3, -82, 67, -64, -36, 65, 56, 
-24, 54, -92, -87, -36, 79, 76, 0, 31, -16, 72, -42, -4, 88, 48, 54, 
-27, -55, 90, -60, 35, -17, 46, 96, -36, 2, -41, 14, 61, 53, 49, 92, 
60, 20, 75, 81, -71, 4, 92, 27, 95, 80, -4, -61, 7, -42, 43, -22, 
55, -51, -45, 17, -2, -10, 81, 72, 38, 55, -65, -17, -72, -52, -31, 0, 
-57, 78, -56, 85, 80, -18, -1, 60, -56, 32, -36, 60, 75, -28, -27, -41, 
58, -60, 19, 104, 66, 6, 2, 93, -34, -39, 31, -26, 103, -5, -41, 28, 
-52, 30, 61, -57, 5, -9, 71, 65, -69, 84, 84, -84, -19, -65, 14, 4, 
-39, -1, -86, 83, -76, 85, 24, -9, 53, -85, -53, -40, 3, -55, 27, -7, 
-32, -30, -27, 27, -7, -50, -25, 23, 67, -40, -79, -49, -51, -35, 19, 24, 
62, -18, 31, -37, -38, -76, -26, -44, -63, -79, 75, -33, -41, -26, -4, 59, 
44, -46, -61, -9, -21, -65, -70, 72, 0, -73, 49, 72, 58, -50, 79, 53, 
84, 64, 3, -50, 6, -85, 34, 1, -75, -72, -62, 57, 8, 80, 58, -28, 
-5, 11, -40, 64, 5, 40, 39, 14, -43, 70, -61, -12, 81, -50, -46, -35, 
69, 39, 81, -83, 83, 84, -5, -21, -41, -20, 40, 84, -56, 26, -49, 24, 
-35, 2, -58, -65, -2, 58, 15, 45, 12, -44, 55, 18, 1, 62, 34, -5, 
41, 66, -64, -81, 25, 9, -7, -12, -23, -15, -29, -45, 15, 9, -63, -39, 
-24, -71, -79, -84, 80, 46, -47, -45, 37, -9, -68, -70, 19, 4, -84, -69, 
80, -63, -33, -73, 43, 44, -70, 14, -35, -72, -56, -69, 11, 44, -25, 9, 
-1, -30, -71, -10, 43, -7, 50, 24, 30, 27, 15, 55, -33, 0, -9, -38, 
-7, -62, 0, -51, -73, -61, -62, -59, 70, 67, 16, 54, 82, 48, 51, 30, 
-81, -25, 81, -31, 50, -37, -81, -60, -69, 50, 42, 8, 48, 2, -65, 50, 
-60, 9, -62, 70, -15, -58, -6, 18, 0, 84, 27, 71, 10, -3, 46, -49, 
5, -70, -38, -4, -40, 15, 82, 24, -47, -23, -84, 31, 5, 15, -46, -22, 
52, 62, 11, 75, 3, 44, -64, -26, -67, -27, 82, 31, 22, -24, -34, -51, 
-63, 59, 55, 24, -49, 36, -62, -7, -6, -78, 33, -19, 12, -3, -76, 41, 
4, 6, 57, -14, 44, 28, -12, -26, -1, 66, -33, 5, 41, -81, -4, -74, 
80, -66, -33, -82, -50, -10, 91, 85, -14, 63, 64, 72, -58, -15, 49, 37, 
0, -15, 24, 26, -77, -24, -59, 72, -55, 65, 44, -4, -42, -81, 43, 58, 
39, -69, 74, 36, 13, 34, 86, -44, 60, -15, 95, -8, -62, -39, 2, -84, 
-54, -23, 48, 52, 41, -15, 36, -7, -81, 44, 41, 88, 30, -35, 23, 76, 
-73, 23, 62, 70, -16, -20, -67, 68, 67, 28, 49, 95, -27, -11, -2, -35, 
-38, 75, -49, -25, -19, -34, 67, 48, -64, -20, 56, 74, -20, -2, -51, 69, 
-83, 77, -80, -59, -36, -34, 78, 72, 5, -29, 75, 21, -23, 15, 64, -18, 
-66, -42, 24, 59, 46, 18, -71, 65, 41, 38, -40, -19, -58, 73, -58, -63, 
-77, -8, 41, 49, 7, -11, 49, 14, -64, -56, -82, 19, 19, -24, -19, -11, 
-24, 20, 82, -33, -65, 25, -37, 11, -28, -52, -73, 25, 82, 10, -72, -16, 
-71, 10, -41, -86, 5, 51, -75, -15, -12, -20, -48, 39, 62, -51, -68, -70, 
-53, 32, -80, 72, -13, -53, -68, -32, -56, -34, 8, -31, 24, 5, 46, -85, 
-50, 58, 12, 18, -82, -5, 47, -36, -22, -4, -41, 62, 73, -74, -2, 51, 
-25, -8, -75, -70, 36, -4, 83, 18, -76, 52, -79, 27, -26, 15, -40, -23, 
73, -39, 10, -56, 26, 63, 72, -15, -68, -63, -61, 49, -3, 52, 80, 63, 
-75, -2, 60, -49, 9, 40, 55, 72, -55, -63, 39, 22, 58, 8, 38, 9, 
20, 48, -17, 108, 15, 60, 42, -2, -44, 69, -8, 33, 11, 45, -15, 53, 
-5, 82, -19, 33, 52, -39, 75, -1, -31, 53, 3, 7, -51, -30, 64, 18, 
96, 42, 3, 62, 78, -19, 28, -60, 39, 68, 7, 0, 47, 37, -28, -46, 
100, 8, 26, 0, -59, -65, 62, -38, -3, -54, 77, 66, -13, 101, -36, -46, 
-59, 54, 72, 84, 66, -39, 75, 85, -24, 92, 81, 29, 26, 85, -27, -81, 
-25, 44, -20, -66, 42, 2, 67, 18, 66, 86, 45, 53, 23, 11, 6, 29, 
-77, -20, 62, 56, -8, -19, -14, 25, -58, 21, 33, 54, 17, 31, 25, -65, 
-44, 56, 13, -41, -51, -62, -84, -73, 0, -52, -34, -2, -38, 27, -26, 23, 
1, 82, -52, -45, -29, 65, -62, 21, -53, -77, -11, -61, 15, -65, 47, 67, 
31, -79, -28, 51, -10, 63, -69, 29, -84, 41, 8, -62, 38, -57, 75, -37, 
57, 37, 42, -48, 39, 64, 31, 8, -10, -77, 42, -86, 77, -67, 3, -4, 
61, -42, 33, 46, -74, -16, 36, -40, -26, -49, -70, 76, 52, -51, 3, -15, 
77, 42, -26, 38, 63, -22, 2, -46, 77, 0, -3, 72, 34, -85, -6, 15, 
-71, -79, 78, -69, -1, 25, 67, -48, -47, -38, -75, -7, -45, 35, -66, -52, 
-12, 28, 42, 9, 21, -21, -59, -20, 18, 81, 67, -71, 21, -39, -77, 77, 
-80, 15, -64, 27, -62, 57, 76, -54, 7, -15, -14, 15, 21, 70, 43, 64, 
-12, -79, 64, -41, -77, -58, -29, 71, -29, -45, -51, -20, 45, -50, 19, 46, 
-35, -3, 50, -28, -29, -57, -60, -41, 77, 64, -32, -62, -24, 53, -23, 3, 
-13, -29, -74, 75, 0, -15, -17, -3, 20, 71, -64, 53, -21, -23, 46, -62, 
78, 0, 35, -58, 47, 52, 37, 51, -65, -37, -70, 17, -40, -52, -15, -44, 
-6, -69, -23, 26, 84, 61, 65, 40, 31, 75, 82, -62, 63, -17, 21, -78, 
72, 73, -18, 48, 76, -61, 53, 23, 4, -77, -8, -75, 82, -46, 79, -31, 
-73, -5, 40, 2, 74, 79, 12, 51, -19, -9, -61, 17, 63, -15, 12, 67, 
35, -63, -29, -44, 86, -76, 10, -76, -28, -66, 68, -50, -4, -40, -31, -80, 
-61, 43, 14, 21, 13, 2, 39, 70, 49, 31, 33, 52, -51, 7, -46, 27, 
81, 86, -81, 52, 14, 76, 90, 30, 9, -59, -29, 28, -15, 92, 107, 81, 
-36, -15, 88, 6, -7, 38, 77, 92, 52, -44, -8, -47, 16, -67, 81, -14, 
-38, 35, -63, -26, -35, 29, -60, -35, -46, 65, -23, 78, 4, 11, -8, 76, 
48, 41, 27, 21, 57, 85, -21, 70, 44, 93, -17, 55, 97, 81, -15, 29, 
41, 15, 43, -15, -49, -1, -13, 26, -79, -67, 80, 26, -15, 100, -29, -36, 
57, 19, -70, -5, -28, 38, -21, 86, 80, -58, 56, -36, -37, 16, -16, -68, 
28, -68, -77, 22, 52, -29, -2, 40, 37, 13, 6, 0, 20, -19, -32, -81, 
71, 83, 62, -38, 50, -61, -44, -56, -36, -69, 57, -37, -2, 15, -36, -6, 
52, 35, 30, -46, 5, 51, -22, -27, -36, -67, 47, -80, -57, -76, -16, 50, 
-13, -60, -80, -53, -4, 73, -10, -64, 43, 79, -1, 14, 9, -46, -18, 23, 
-72, -70, 72, 50, -20, -28, 27, 80, -28, -84, -86, 49, 45, -7, -17, -71, 
74, -25, -40, 65, 55, -11, -71, -31, -4, 31, 38, -76, 27, -17, -59, 10, 
24, 80, -36, 15, 80, 16, -6, -74, -62, -61, -81, 70, 60, 22, -54, -55, 
4, 30, 46, -3, -37, 26, 46, 34, 8, 19, 56, 80, -59, -27, 19, -52, 
-10, 58, -2, 75, -63, -68, 30, -10, -45, -3, 32, -57, 52, -65, -57, 15, 
-42, 72, -50, -62, 69, 81, 21, 56, 14, -73, 8, -59, 52, 46, -70, 82, 
-6, -62, -21, 27, 2, -35, -60, -3, 30, -72, -80, -66, 71, -70, 72, 18, 
82, -26, -50, 46, 33, 5, -58, -1, -47, 36, -70, -71, -29, -70, -33, -1, 
-62, 76, 84, 20, -74, -39, 65, 3, 53, 50, 0, 49, -16, 15, -73, 6, 
-6, -58, 27, -16, 20, 3, 38, -54, -78, -33, 78, -81, 78, -42, -49, -55, 
4, 0, 67, -39, -17, 34, 17, -69, -74, -16, 24, 38, -20, -42, -41, 43, 
-44, 81, -57, 58, 6, 85, 36, 21, -2, 21, 16, 61, 18, 73, -44, 71, 
39, 45, 4, -81, -72, 55, 64, 40, 93, 37, -68, -74, -35, 76, -28, -63, 
19, 70, 7, 14, -51, 10, 35, -4, 61, 49, 13, -21, -58, 15, -14, 8, 
-69, -9, 0, -29, 15, 32, 56, -68, 41, 14, 24, 10, -3, 86, 90, 43, 
57, 27, -60, 62, 97, 70, -66, 24, -31, 35, -40, 93, -4, -63, -11, -7, 
71, 71, 38, 13, 64, 40, -26, 82, -18, 106, -24, -47, 53, 91, 60, -32, 
-50, 92, -56, 103, 27, 15, -73, -81, 29, 97, 90, 101, -44, -53, -14, 85, 
-74, -54, 88, 74, 48, 79, -52, -25, -53, 73, 15, -29, 54, 12, 96, -44, 
20, -37, 27, -42, 77, 1, -44, 90, 18, -31, 33, 9, 69, -45, -24, 37, 
63, -51, -5, 81, -39, -55, 20, -31, -63, -48, -49, 29, 84, -19, -8, 77, 
63, -22, -27, -10, 11, 38, 35, 15, -94, 31, -61, -1, -55, -58, -41, 43, 
-8, 0, -4, 13, -49, 66, -8, 39, 13, 63, 82, -39, 11, 56, 54, -37, 
-49, -57, -84, 24, 11, -46, -33, -72, 23, 59, 27, 55, 24, -61, 33, -16, 
37, -26, -78, -54, 61, -21, 41, 51, -77, -45, 28, -28, 58, -23, -9, 41, 
20, 40, -4, -6, -6, -8, -81, 56, 61, -1, -69, -37, -31, 24, 58, 44, 
11, 4, -80, 47, -42, -21, 29, -7, 7, -19, -71, -81, 80, 44, -48, -22, 
25, -70, -71, 42, 81, 68, -32, 53, -2, -8, -32, -61, 25, 10, 30, -73, 
-20, -15, -24, 4, -66, 49, 69, 26, 16, 25, 64, 38, -30, 9, -5, -12, 
35, 19, -82, 59, 80, 85, 79, 44, -74, -18, -3, 9, -19, 47, 46, -50, 
-67, 31, -70, 71, -62, -22, -23, -53, -10, 52, 78, 75, 57, -41, -18, -79, 
-62, 31, -84, -76, -72, 13, -16, -54, -29, 8, -77, 27, 82, -47, 76, -4, 
10, 78, 11, 11, -82, 72, 22, 55, -58, -22, 51, -60, -52, 9, 49, -71, 
-53, -14, -6, 4, 1, 19, 76, -17, 78, -36, -86, -30, -83, 45, -39, 12, 
69, -68, -47, 15, -68, 57, -73, 36, -2, -44, 5, -1, 77, -85, -5, 62, 
45, 36, -19, -88, 79, 72, 15, 38, 3, -9, -68, 23, -71, 76, 46, -53, 
48, -23, -1, 13, -8, -74, -73, 38, 40, -39, 34, -28, 46, 17, -41, 62, 
-54, 26, 74, 0, -23, -40, 57, -65, 34, -63, 44, -34, -35, -75, -24, 51, 
-22, -18, 33, 70, 73, 2, 22, 78, 71, -19, 15, 37, 46, 60, -53, 63, 
46, -28, -27, -81, 47, -61, -69, 65, 28, 16, 71, -68, 3, 25, 17, -35, 
-20, 46, 66, 48, 55, 84, -2, -79, 89, -56, -18, 78, 36, -29, -77, 14, 
60, 59, -51, -1, 30, 74, -4, -15, 47, -8, 20, 16, 48, -56, 44, 87, 
-31, -24, -55, 72, 4, 72, -57, -41, 59, 63, 20, -31, 62, 48, -60, 41, 
-18, 22, 84, 85, -10, 77, -74, 74, -54, 12, -43, -24, 12, 88, 2, 1, 
-49, 24, -80, -53, -27, 30, 61, -51, 62, 53, -75, -31, -35, -18, 18, -75, 
77, -43, -17, -5, 60, 82, -55, -62, -71, 29, 79, 37, -54, -36, -22, 79, 
92, 46, 83, 70, 55, 13, -54, -67, 38, 33, -50, -36, 39, -42, -20, -31, 
-19, -18, -7, 0, 52, 76, 13, 15, 0, 53, -85, -45, -9, -51, 84, 11, 
46, 43, 43, -45, 79, -86, -45, -41, 23, -4, 17, 38, 61, -30, 26, -43, 
15, 0, 39, -2, -74, 60, 36, 22, 8, 27, -13, -11, -71, 73, 69, 67, 
-61, -56, -46, -68, -19, -21, 16, -43, 55, -18, 46, 11, 5, -30, 64, -33, 
35, -28, 17, 48, -21, -59, -9, 79, -67, -65, -63, -69, 47, -35, 21, 49, 
-80, 28, -57, -50, 14, -49, -15, 72, -48, 22, -57, -33, -60, 19, 64, -6, 
47, 12, -75, -16, -42, 51, 84, 80, -9, -67, 48, -15, 72, 6, 6, 19, 
47, -58, 31, 48, -32, 34, -64, -18, -25, -80, -61, -18, -56, -50, 58, 16, 
-28, -65, -44, -35, 62, -85, 33, -33, 59, -30, 63, -9, -13, -3, 26, 76, 
-53, -73, -2, -85, -39, -6, 34, -4, 27, -55, 35, 62, 41, 48, -75, -30, 
28, 5, -78, 82, 64, -55, -37, 7, 28, 14, 74, 66, 4, 26, -69, -76, 
59, -84, 60, 13, -15, 32, 36, -65, 1, -13, -46, 14, -9, 73, 72, 57, 
9, -14, -61, 35, -8, -54, 24, 24, 31, 75, 29, -50, 45, -16, 23, -45, 
82, 49, 43, -49, -45, -25, -36, -81, 40, -36, 75, -46, 65, 60, -67, 4, 
-75, 12, 3, -45, -44, 22, 70, 23, -57, -37, -73, 3, 65, 1, 6, -13, 
52, -20, -38, 86, -6, -75, 49, -35, -3, 21, -1, -77, -36, -82, 86, -56, 
-62, 4, -14, -47, 15, -41, 84, 80, 73, 34, 18, 68, 14, -26, -17, -48, 
24, -2, -16, 51, -17, -12, 39, -50, -49, -8, 31, 19, -33, -80, 5, -20, 
-86, 27, -16, 83, -83, 26, 67, 53, 9, 28, -81, 15, 72, 40, -81, -52, 
34, -84, -43, 7, -2, -70, -27, -46, -34, -26, 52, -31, 14, 22, -31, 57, 
-17, -8, 66, -76, 127, 67, 115, -4, -6, 117, 9, 81, -41, 46, 32, -51, 
55, -1, -2, -13, 33, 0, 69, 93, 15, 39, -77, -31, -77, -6, 19, 94, 
-24, 43, -52, 53, -48, 23, 13, 61, -19, 27, 65, 51, 70, -21, 56, 82, 
85, 115, -20, 89, -75, -30, -66, -48, 5, 26, 91, -32, -44, 45, -5, -68, 
98, 116, 13, 16, 121, 100, 17, -66, -42, 102, -31, -6, 120, 14, 7, 74, 
48, 60, 40, 117, 7, 87, 1, -46, 28, 78, -9, 81, 36, -61, -55, -42, 
19, -58, -70, 26, -62, 32, -79, 62, 79, -51, 2, 64, -31, -60, 51, 6, 
6, -30, -76, -69, -14, 79, 53, 42, 59, -69, -23, 79, 80, 7, -32, -15, 
72, -31, 61, 61, -72, 91, 69, 13, -57, 0, 15, -38, -52, 28, 0, 82, 
68, -13, 0, -19, 73, 92, 2, 51, -2, -26, 20, 1, 32, -10, 69, -66, 
29, 38, 25, -58, 68, -39, 31, -38, 78, 42, -32, 41, -59, 23, 16, -86, 
-7, -63, -66, -10, -64, -82, -72, 71, -50, 2, 82, -6, -15, 71, -69, 85, 
-38, -29, -56, 67, 43, -14, 0, 51, 79, 46, -71, 30, 40, -71, -33, 53, 
-71, 42, -55, 73, 69, -1, 25, -66, -14, 26, -66, 41, -28, -25, -13, -20, 
-49, -84, -50, -33, 4, -45, -85, 26, 41, -1, -23, 0, -56, 41, -12, -64, 
25, -4, -36, -10, -35, -16, 64, -14, 68, 14, 86, 7, -78, 38, -73, 38, 
-7, -50, 25, 24, -40, -30, -51, 7, -4, 67, -13, -63, -22, 4, -25, -53, 
-48, 67, -58, -36, 43, -37, 14, -64, -15, 36, 2, 0, -55, -42, -79, 42, 
7, 34, -84, -11, -6, 69, -33, 0, -74, -59, -80, 73, 45, 69, 85, -57, 
-38, 31, -22, 61, 54, 1, -68, -57, 82, -9, 11, 14, 58, 37, -67, 27, 
-66, -24, -54, 85, 52, 50, -74, 19, 32, 81, -82, -63, 73, -40, 5, -36, 
65, -25, 73, -73, 42, -50, 2, -62, 52, -76, -19, 75, 56, 70, 71, 24, 
26, 2, -55, 27, 21, -32, 77, -41, 74, -25, 23, -48, -83, 46, 47, -62, 
-65, 11, 35, -1, -17, 79, 50, 24, -23, -91, -4, 75, 15, 5, 23, -77, 
-37, 6, 0, 78, 24, -35, -17, 66, 55, 76, -62, -37, -37, 28, -27, -44, 
-31, 46, -64, -89, 61, -9, 22, -41, -41, 47, 4, 2, -77, 46, -9, -69, 
26, 57, -5, 81, -59, -23, 63, -61, 41, 15, 1, -81, -21, -40, -9, 73, 
5, -33, 49, -37, -28, -42, 64, 36, -49, 13, 21, 17, 29, -55, -53, -71, 
-50, -85, -40, 5, -3, 12, -3, 57, -13, 57, 40, -58, -41, -51, -20, -18, 
-62, -52, -32, -73, -17, -74, -52, 36, -62, -31, 59, -43, -1, 76, -76, 71, 
49, -72, 33, 78, -68, -84, 23, -77, -56, 15, 41, -19, 12, -69, 17, -84, 
12, -24, 87, -22, -30, 79, 74, -29, 86, 86, -42, 34, -28, 72, 56, 6, 
-17, -46, 89, -37, 41, 42, -23, -59, -62, -8, -22, 64, 19, -30, -38, 19, 
40, 28, -32, -29, -45, -12, 60, 87, 6, 28, -75, 37, -38, 34, -13, 25, 
-42, 34, -11, -40, 69, 57, -36, 36, 20, 65, 38, -8, 10, 82, -41, 16, 
-29, -54, 68, 13, 24, -40, -7, 70, 5, 81, -71, -14, 63, 11, -11, -48, 
-12, 75, 87, 117, 75, -18, 39, 56, 17, 10, 58, 71, 33, 80, 33, 3, 
-69, 90, -27, 33, -26, 20, 85, -38, 19, -7, -45, -23, 33, 79, 32, 34, 
-33, 6, 62, 89, -16, 0, 61, 0, -19, 87, 27, 70, 9, 81, 28, 115, 
7, -14, -78, 33, -78, 47, 29, 83, 107, 61, 60, -68, -70, 83, -14, 68, 
72, 45, 8, 56, -77, -47, 43, 38, -28, 92, 39, 43, -43, 17, -16, 11, 
6, 100, -41, 69, -7, -13, -60, -33, 76, -71, 28, -88, 12, -71, 78, -54, 
-66, -21, -75, 47, 31, 22, 6, -29, 74, -12, 82, 63, -30, 41, 35, -61, 
22, 68, 0, 27, -34, -65, 38, -37, -62, 7, 62, -56, -6, -41, -79, 9, 
14, 64, -83, -21, 13, 43, 29, -68, 20, 11, 15, -64, -81, -41, 31, -52, 
-37, 26, -8, 11, -60, -74, 39, 81, 73, -57, -15, 11, 1, 13, -49, 0, 
-45, 52, 72, -6, 80, 9, -11, 28, -24, 59, 33, 26, -71, -47, 58, -85, 
68, 40, 11, -24, -12, 16, -41, 19, -19, -10, 28, -52, -75, -35, 60, -14, 
-5, -54, 82, 24, 80, 37, -79, 22, -7, 13, -52, 15, -43, 9, -49, 75, 
-5, 32, -79, 44, -80, -72, -69, 35, -70, -20, -64, -26, 15, 48, 81, 76, 
8, -1, -81, 55, 11, 36, -1, -59, 55, 29, -14, -52, 39, 11, -75, -87, 
11, 80, 55, 53, 62, -55, -76, -80, 84, 25, 58, -6, -59, -62, 18, -68, 
29, 13, -69, 47, -53, 7, 52, 17, -39, 54, 34, 97, -1, 82, 31, -73, 
-12, 1, 49, -64, 0, -23, -16, 55, -83, 31, 86, 87, -59, 20, 0, -26, 
-35, -39, 28, -6, 82, -66, -5, 50, -22, 42, 7, -15, -66, 79, 47, 64, 
-34, -79, -26, 36, 20, -5, 18, -24, 38, 1, -64, -57, -42, -27, 48, 26, 
-17, 43, 73, 25, 2, 60, -27, 62, 87, 3, 20, 55, -57, 26, -65, -54, 
-36, -19, -31, -1, 0, 73, 80, 9, 14, -45, 64, 67, 18, 52, 21, -82, 
26, -34, -85, -29, 78, -38, -82, -83, 47, 3, 2, 4, 72, 11, -47, 51, 
-22, 24, 53, 41, -1, -7, 30, 28, -45, 27, 77, 21, -61, -4, -80, -73, 
-79, -30, 37, 43, 77, 6, 22, -70, -31, -17, -80, 72, 67, 35, -53, 2, 
-6, 63, 1, 11, 23, 2, 33, -42, 5, -64, 87, 79, -28, 99, -42, -6, 
-54, 67, 93, 49, -23, 66, 61, -7, -60, -34, 61, -41, 1, -48, 29, 51, 
-72, 73, -78, -39, 7, 38, 58, 5, 27, 85, 65, 41, 28, 87, 48, 17, 
-11, 89, 29, -29, -13, 15, 21, 39, -12, -40, 7, -37, -57, -16, -25, -75, 
-65, 72, 17, -9, 87, 76, -20, 28, 87, 52, 18, 91, 46, -19, -63, 24, 
53, -36, 85, 36, -17, 29, 4, -2, 88, -18, 29, -43, 67, 16, -26, -31, 
-41, 2, 26, 19, 38, -49, 89, 32, 47, 70, -31, 21, -42, -29, 15, -39, 
58, 18, 68, 17, 67, -37, 72, 9, -37, 87, 70, 67, 73, -19, 25, 72, 
22, 14, 32, 98, -73, 89, 33, -11, -39, -5, 15, -4, 71, 15, 34, -48, 
-76, -19, 24, 94, 65, 30, -14, -12, 84, 10, -45, -9, 72, 14, 24, 75, 
-45, -9, 1, 62, 26, 8, -29, 53, -7, -33, -39, 16, -10, 44, 94, 88, 
9, -57, -76, 48, -4, 51, 58, 78, -16, 11, -8, 54, -69, -27, 31, 83, 
34, 9, 17, -50, 48, -78, -77, -54, 0, 58, -36, 21, -14, -42, 12, -14, 
50, -4, 75, -79, 75, -60, -65, -46, 69, 52, 71, -84, -54, 55, 21, 79, 
-25, -14, -38, -21, -29, 71, 20, -22, 50, 18, 51, -57, 72, -72, -34, 19, 
4, -16, -77, -42, -11, -17, -12, 8, -59, 73, -17, 2, 10, -51, 28, 35, 
-68, 46, 98, 56, 20, 15, -51, 52, -30, -25, -10, -3, 69, 65, 13, -48, 
-80, 38, -46, 29, 51, -40, 33, 83, 77, -7, 83, -69, 18, 15, 95, -12, 
48, 39, 69, -74, -67, 8, -71, -6, 37, 7, 15, -48, 74, -57, 26, 10, 
76, -48, -52, -79, 17, -25, 47, 36, 44, 0, 79, 1, 6, 60, -79, 73, 
-55, 78, 73, -16, 75, 19, 18, -74, 26, 56, 95, -51, -53, 25, 15, 21, 
73, 77, 11, 65, -3, 43, -69, -53, -3, 86, -76, -78, -51, -1, 17, -52, 
-2, -3, 39, -48, 47, 83, -56, 81, -9, 80, -51, -1, 53, 34, 47, -34, 
-19, -70, -1, 34, 56, 81, 13, -80, -21, -81, 51, 3, -64, -2, -16, -48, 
73, -79, 44, 38, 69, 8, -60, -83, -47, 38, 37, -24, 12, -54, -12, -2, 
-20, 44, 12, 60, -17, 77, 23, 60, 72, 25, -16, -70, 57, 21, -32, 54, 
-12, 71, 80, -85, 42, 15, 76, 6, 69, 31, 45, 6, 50, -21, -15, -50, 
56, -13, -72, 60, -76, -29, -19, 4, -10, 46, 26, 55, 64, 52, -85, 26, 
23, 76, -44, 20, 21, 59, 30, 34, 7, 10, -76, 28, 17, 51, -16, -27, 
43, -36, -84, -49, -39, 53, -5, 20, -41, -12, -76, 22, 14, -10, 18, -20, 
-56, 75, -53, -66, -6, -21, -58, 29, 81, -2, 53, -34, 32, -71, 22, 52, 
14, -43, -82, 72, -84, -57, -83, -74, -1, -63, -11, -1, -67, -72, 33, -9, 
-61, -42, 70, -60, -66, -34, -44, -70, -24, 19, 40, -54, 45, -64, 26, -21, 
45, -35, -10, -65, 30, -56, 59, -73, 57, -79, 28, 16, -47, -62, -15, -59, 
54, 81, 42, -28, 82, -1, -3, -11, -80, -77, -61, 26, 20, -71, -77, -78, 
-58, -28, 80, -44, -47, 64, 58, -12, 23, 49, -82, -59, 30, 41, 29, -36, 
65, 77, 73, 56, 21, -7, 65, -78, -30, -38, -30, 71, 51, -27, 44, 10, 
-72, -36, 70, 42, 9, 78, -31, -87, 59, -48, -7, 72, -35, -4, 18, -37, 
-82, -46, 45, 3, 67, 39, 48, -56, -32, -33, -24, -31, 68, 10, -46, 75, 
21, -31, -86, 82, -25, 11, -28, -21, 68, -4, -73, 56, -43, -40, -14, -53, 
-52, 85, 52, 21, -69, 27, 4, -57, 32, 3, 33, 26, 5, -34, -9, 35, 
-82, 0, -31, -1, -18, 84, -74, -9, 9, -10, -5, -77, 53, -77, -60, -55, 
70, -68, -80, 72, 82, 41, -52, 63, 20, 63, -30, 12, -77, 1, -82, -8, 
-67, -56, -70, 39, 63, -16, 1, 80, 67, 45, -78, -3, -3, -68, 66, 55, 
-75, -84, 51, -38, -7, 69, -22, 66, 15, 43, -79, -39, -58, -8, 3, -44, 
-68, -76, -46, -28, 81, -83, -2, 44, -2, -76, 42, 69, 44, 44, -43, 18, 
-72, -80, 71, -27, 39, -62, 2, -41, 80, 10, -41, -50, 76, 33, 66, -80, 
7, 68, -56, -82, 12, -26, -75, 9, 72, -61, -65, 75, 66, 11, 71, -75, 
17, -82, -83, 35, 2, -38, 22, 85, -51, 5, 77, -26, 54, 35, -7, -1, 
13, -22, 39, 76, -84, -3, 0, 52, -1, -66, 68, 60, -47, -55, -82, -2, 
2, 66, 50, 74, -13, -55, -25, 19, 85, 80, -35, -71, 34, -10, 56, -55, 
52, 5, -21, -33, -38, 22, 54, -6, -39, -68, 31, 38, -41, -7, -38, 26, 
22, -64, 97, 89, 92, 20, -61, 19, -22, 62, -66, 30, 36, -17, 17, 56, 
-52, -67, 1, -23, -17, 58, 50, 39, 23, 29, -10, -39, -27, -47, 0, -29, 
69, -26, -72, 65, 57, 13, 0, -31, 74, -9, -44, -50, 83, 82, 3, 2, 
62, -9, -81, -42, 88, 51, 36, -54, 64, 31, -44, 74, -24, 4, 55, 70, 
-62, -9, 38, -15, 87, -73, 85, 42, 89, 59, 15, 13, -32, 71, 7, -25, 
-38, -44, -79, 15, -9, -8, 63, 11, 36, 35, 45, -62, -62, -22, 59, -28, 
46, -39, -79, 8, -93, 45, 77, 61, 47, -80, -17, -49, -74, -27, 53, -20, 
-64, 73, 37, -55, -7, 56, 13, 16, -82, 83, 40, 56, -32, 70, 52, 37, 
-62, 71, -66, 41, -34, -38, 0, -55, -48, 57, -67, -21, 42, 15, -65, -33, 
-65, 40, -6, -23, 32, -2, -22, 68, -54, 70, 65, -47, 23, -51, -17, -91, 
60, 41, -7, -65, 1, 1, -8, 14, 57, -10, -22, -45, 41, 9, 70, -22, 
-69, 29, -5, -14, 38, -51, 2, -59, -17, -53, -61, -2, -15, -53, -53, 62, 
-60, -22, 0, 46, 20, -13, -16, 76, 22, 8, 68, -42, 12, -51, 44, -10, 
-44, 44, -44, 82, 59, 28, 38, -42, 60, -32, 16, -78, -5, -2, 52, -70, 
-33, 14, -70, 36, -60, -43, 5, 47, -61, -70, -68, 30, 22, 59, -46, 22, 
-20, 58, -10, -86, 18, 57, 48, -54, -28, -68, 48, 47, 26, -60, 39, -10, 
54, 25, 52, -22, -75, -34, 50, 72, 22, 54, -35, 3, 47, 34, -3, -73, 
-49, 50, 10, -56, 4, -24, -77, -30, -18, 55, -54, -36, -14, 79, -62, 11, 
-57, 74, 58, 44, 82, -12, -30, 4, 67, -62, 73, -53, 31, 48, 86, 79, 
61, 2, 68, 24, 69, -3, -36, 56, 51, 58, 42, -29, 30, 81, -50, 7, 
-48, -20, 6, -17, 60, 66, 75, 8, 93, -14, 51, -9, 8, -35, -30, -33, 
5, -62, 40, -15, 68, 69, -20, 4, 55, 72, -7, -4, -45, -7, -63, 13, 
-46, 62, -35, 78, 68, 69, -50, -28, -13, -75, -8, 58, -42, 65, -69, -63, 
21, -9, 27, 63, 2, 86, 27, 49, -81, -62, 20, -17, -55, 63, -58, 5, 
46, -17, 3, -12, 85, 27, -2, 27, 53, -18, 55, 49, 27, -73, 80, -22, 
18, 56, 60, -58, 93, -41, 95, -4, 14, 65, -35, 11, 10, -69, 68, -82, 
-81, 21, -31, -13, -83, 62, 86, 6, -83, 81, -50, -47, -4, 69, -11, 24, 
-23, -37, -63, 9, 73, -47, 11, 36, 57, -42, -84, -20, -68, -4, 1, -84, 
-42, -65, -4, -81, 38, 0, -25, -44, -46, -80, -32, 7, -64, -34, -52, -54, 
-52, -75, -64, -68, 24, -48, 9, -75, -8, 13, -19, -59, 62, 56, 69, -76, 
24, 28, -48, -84, -76, 56, -59, 54, 46, -27, -40, -27, 83, -81, 88, -18, 
69, 85, -52, 56, 71, 77, -52, 0, 73, -34, -7, 43, -76, -35, 74, 25, 
-8, -77, -36, 3, -16, 42, 51, -60, -41, -54, 82, -24, -4, 30, -11, -14, 
-51, 20, -36, 15, 76, -77, -41, 38, -49, 77, 7, -21, -76, -75, 70, 64, 
60, -33, 24, -57, -27, 77, 6, 51, -80, -13, 32, -48, -79, -20, -56, 2, 
-7, 42, 48, -32, 74, -48, 55, -28, -4, 11, 24, 12, 37, -57, 19, 20, 
73, 40, -68, -17, 64, -23, 53, -68, 24, 15, 7, -68, -1, 71, -3, 41, 
20, 9, 42, -36, -4, -57, 22, 3, -25, -33, 7, 13, -65, 54, 48, -84, 
3, -63, 85, -52, -33, 15, -8, 16, -57, 59, -63, 70, -65, 49, -16, -46, 
43, -70, -52, -45, -67, -51, 51, -32, -51, -77, -12, 10, 7, 70, 40, -73, 
-82, -31, 68, -31, 28, 67, -5, -61, 18, 79, -20, -85, -21, 25, -2, -52, 
-40, 27, -71, -76, 54, 74, 32, -41, -18, -8, 12, 43, -32, 22, 36, 13, 
-78, 56, -4, -71, 18, -71, -24, -52, 55, 50, 50, -3, -50, -76, 0, 67, 
62, -25, -63, 37, -22, 69, 71, 80, 28, 8, 24, -79, 55, 0, -44, -39, 
-78, 63, -43, -64, -43, -51, -68, 38, -46, 40, 83, -72, -10, -79, -80, 13, 
-8, 45, -21, 42, -59, 0, -40, -44, 1, 2, 31, 60, 26, -60, -85, 52, 
19, 38, -22, 82, 84, -14, 20, -18, -3, 43, 73, -27, -48, 42, -29, -81, 
76, 1, 3, 13, -53, -73, -58, 47, 81, 19, -6, 18, -4, -80, 65, -74, 
-36, 65, 77, 29, 13, 64, -15, -2, -59, 34, -48, 53, 60, -52, -75, 69, 
81, -51, 54, 11, 41, 81, -23, 7, 47, 3, 21, -24, 28, 3, -68, -23, 
7, 19, 3, -47, 17, 74, 65, -80, 37, -86, -87, 25, -56, -52, -17, -66, 
33, -38, -85, 43, 53, -14, 58, 61, -26, -77, 16, 31, -9, 75, 65, -51, 
41, 61, -67, 4, -34, -69, -46, -12, 41, -53, -23, -56, 67, 56, -59, -11, 
31, 57, 16, 62, 0, -68, 53, -75, -15, -71, -38, 72, 23, 53, -78, -1, 
-23, -10, -43, -15, 45, 19, 1, -10, -61, -67, -31, -32, 25, -11, -12, 21, 
2, -38, 73, -13, 41, 41, 21, -72, -59, -34, 52, -59, 65, 44, -23, 54, 
-33, -8, 0, -6, 38, 21, -59, 68, -25, -20, 88, 56, -33, -9, -20, -3, 
-53, 29, -79, 51, -11, 15, 90, 25, -65, 22, -62, -74, -41, -60, -13, -82, 
9, 47, 9, 40, 51, 61, 64, -84, 1, -49, 66, 41, -44, 16, 78, -59, 
9, 86, -72, 89, -6, 82, 38, 60, 12, 36, -27, 30, -44, -53, -29, 88, 
14, 71, 64, 69, -79, 46, 27, 45, 70, 26, 56, -17, -17, -62, 49, 31, 
5, 8, -29, 22, -80, -8, -72, 63, 16, 73, 52, 46, 39, 26, -32, -14, 
-51, 37, 74, -78, 52, 37, 83, 74, -6, 49, 56, 64, 22, -11, -69, 24, 
62, 40, 46, 56, 10, 55, -50, -74, -9, -25, -6, 80, -14, -25, -8, -36, 
-18, -14, 30, -42, -32, 85, 56, -43, 84, 2, -62, 78, 0, -37, 53, 53, 
95, 51, 21, -36, 81, 67, -64, 87, 93, -55, -28, -70, 38, -29, 24, 50, 
-18, -37, 49, 82, 34, 56, -21, -35, -27, -37, -46, 82, 86, -27, -11, -67, 
44, 69, -5, -56, -84, 1, 17, -25, -12, -53, 22, -26, 10, 42, -35, 9, 
64, -7, -26, 66, -7, -9, 69, -25, -71, -50, -82, 16, 16, 57, 45, 26, 
-50, -1, -46, -77, -51, 28, 41, 56, -73, 46, -25, -19, -57, 48, 71, -70, 
22, -41, -62, 55, -74, -12, -7, 65, 26, 51, -73, -54, -71, 35, -66, -41, 
79, -45, -6, -63, 53, -48, -75, -21, -11, -9, 0, -43, -21, -47, -18, -34, 
54, -71, -69, -40, -77, -4, 58, -7, 61, 25, 28, -16, -78, 36, -29, -49, 
-40, -23, 26, 11, 50, -31, 30, -68, 80, -49, 81, -21, 3, 3, -12, -48, 
-46, 79, -61, -11, 20, -53, 31, -32, 36, -26, 76, -57, -27, -13, 24, 63, 
4, -30, 18, 32, 33, -20, -66, 55, 34, -11, 22, 35, -32, -10, -56, 40, 
49, -48, 33, -43, -5, 5, 30, -12, -27, -37, -52, -86, -25, 10, -39, 28, 
94, -10, 76, -23, 36, 91, 58, 111, -11, 4, 69, 48, 24, 97, 101, 62, 
110, 47, -34, -17, -28, 45, 30, 0, 110, -22, -7, 44, 34, 4, 68, -71, 
-24, 110, -10, 82, 42, 0, 31, -78, -40, 73, 67, 114, 92, 105, 91, -11, 
0, 38, 72, 65, 71, 39, 49, 35, -76, -44, -12, -39, 10, 31, 59, -10, 
36, -22, 0, 16, -38, -11, 103, 95, 30, -26, -11, -6, 84, 93, -10, 97, 
69, 86, 44, 52, 12, -24, 61, 24, -36, 68, -56, -22, 4, -42, -40, -50, 
-8, 82, -66, -41, -37, -13, 49, 71, -19, 0, -34, -59, -81, 21, -34, -53, 
-68, -75, 54, 76, -60, -21, -10, -61, -79, 67, -82, -80, -74, 55, 29, -76, 
-46, -79, 78, 10, 1, 30, -52, -56, 61, -85, -52, 72, 20, 8, -6, -16, 
-17, -82, 21, 80, -61, 42, 43, 1, -72, -23, -24, -82, -20, 9, 33, 26, 
46, -31, -80, 6, -7, 8, -37, -61, 62, 7, -32, 31, -7, -77, 9, 82, 
68, 15, 63, -77, -23, 74, 50, -13, 78, -64, -73, -48, 10, 36, -60, 51, 
-57, 48, -15, -26, -35, 63, 86, 83, 5, 2, 58, -31, -33, 40, 10, 50, 
-38, 38, -63, -72, -35, -52, -18, -81, -19, -9, -80, -83, -71, -17, 85, 30, 
86, 23, 2, 68, -58, -23, -34, -2, 1, -39, 53, 17, -78, 53, 3, 63, 
18, 53, -25, 11, -36, 23, -22, 50, 3, 47, -30, -8, 13, 63, 30, 48, 
25, -21, 14, 84, -40, -15, 71, -34, 31, 16, 53, -81, 33, 51, 99, -40, 
13, 0, 72, 37, -14, -81, 29, 97, 86, 59, 88, 84, -58, -22, 82, 59, 
-48, -44, 43, -13, 48, -13, 38, -21, 28, 65, 3, 34, -2, 22, 0, 12, 
73, 24, -34, 84, 76, -15, -18, -26, -57, 102, -13, 23, 95, 28, 8, 68, 
-59, 28, 62, 20, -26, 95, -10, -31, -15, -44, 5, -78, 79, 72, 35, -55, 
-49, 74, 31, -29, -4, 46, 64, -34, 91, 4, 22, -9, -33, -19, 6, -39, 
-67, 41, -43, 15, 45, 41, -27, -21, 49, 0, 33, -73, 16, -17, 33, 72, 
70, -36, 73, 12, 33, 18, 3, -49, -52, -82, 2, -55, 7, 38, -82, 16, 
-31, 85, -84, 75, 0, 33, 0, 78, 57, -45, -80, 70, -28, 87, 0, -16, 
7, -77, -6, -76, 67, -53, -60, 22, -52, -70, -47, -55, -58, -70, 79, 55, 
-65, -78, 74, 62, -56, 42, 25, -15, 2, -55, 68, 61, 40, 0, 25, 44, 
8, 38, -66, -51, 42, -77, -34, -13, 85, -38, 22, 4, 59, 23, -75, 27, 
17, 85, 14, -28, -43, -69, -15, 46, -49, 79, -26, -29, 57, -29, -4, 70, 
-50, 26, -15, -69, -74, -57, 60, -22, 78, -32, -83, 53, 21, -19, 73, 50, 
-71, 14, 69, -56, -45, 37, -15, -20, -5, 10, -32, -18, 26, -40, 36, 4, 
54, 61, -77, -18, 67, -15, -80, -13, 37, 20, 64, 36, -45, -32, -86, 5, 
80, -29, 57, -63, -69, -58, -44, 3, 41, -34, 59, -24, 66, -50, -9, 18, 
-61, 59, -78, -60, -12, -36, -70, 63, 84, -48, 45, 55, 74, 25, 3, 17, 
52, 28, 68, -3, -26, -60, -2, -12, -69, 3, 63, 14, -69, 46, -74, -18, 
-33, -75, 27, -52, -46, -34, -60, -23, 77, -75, -17, -71, -54, -50, -70, -31, 
77, -39, -68, 64, -17, 25, 70, 69, -35, 67, 11, 75, 78, 0, -63, -28, 
34, 48, 55, -6, 8, 32, -73, -14, -72, 67, -4, 3, -30, -76, 20, 21, 
-1, 3, -26, 25, -41, 42, 4, -70, 71, 21, 66, -38, 75, -12, -64, 42, 
-56, -21, 23, 33, -65, -42, -65, 10, -71, -87, -28, 6, 78, 64, 70, 19, 
-22, -75, 19, -52, -4, -31, 5, -38, 9, 40, 7, 82, -2, 1, 41, -72, 
-64, -41, 56, 29, 64, -58, -4, -86, -53, -79, 10, 69, 63, -72, 26, -61, 
72, 4, 22, 43, -45, 20, -4, 16, 32, 0, -84, 43, 27, -43, -11, -56, 
-77, 86, -6, 42, 58, -32, 76, 65, 37, -55, 17, 25, 46, -25, 33, -28, 
-18, 32, 17, 18, -73, 66, 82, -34, 60, 49, 41, -68, -22, 53, 43, -54, 
72, -61, -11, -71, 31, -73, 1, 10, -41, 47, -10, -17, -70, -26, 39, 72, 
2, 41, 51, -72, -32, -42, 35, -77, 20, -7, 89, 23, 7, 77, 17, 10, 
82, 38, -47, 71, -68, -63, -57, -36, -17, -84, 44, 32, 31, 14, 9, -41, 
-2, 26, 16, 58, -78, 59, 83, -69, 24, -9, -28, -54, -59, -6, -67, 51, 
72, 19, 78, 79, -56, 87, -6, -33, -74, 67, 31, 76, -25, 35, -24, -50, 
79, -54, -67, 44, 59, 9, 32, 34, 5, -62, 70, -42, -74, -58, 46, 87, 
54, -24, -63, -37, -35, -56, -51, -77, 43, -52, -48, -40, -71, 14, -40, -53, 
24, 40, -80, -2, -81, -50, 9, 2, 28, 44, 42, 20, 48, -64, 40, -44, 
-38, 13, -9, 60, -56, -47, 22, 70, 70, -50, -32, 81, 86, -20, -10, -20, 
39, 19, -81, -78, -61, 37, 86, 54, 47, 36, -75, -55, -51, -7, 24, -54, 
62, 3, 4, -19, -42, 61, -66, 0, -52, -53, -29, 67, 4, 5, 64, 53, 
-24, -33, -57, -25, 47, 126, 60, 33, 119, 99, -9, 31, 81, 20, 112, -42, 
48, 1, 33, -35, 107, 57, 83, 65, 30, 8, -43, -58, -56, 86, 31, -35, 
76, 49, 52, -67, 39, 31, -20, 26, 123, -4, 27, -68, -28, 38, 56, 20, 
-37, 108, 30, 62, 95, 28, 44, -49, 102, 48, 66, 16, -3, 82, 32, -3, 
67, 102, 8, 3, 100, -47, 85, -74, -29, -25, 78, 45, 111, 2, 99, -9, 
22, 6, 114, 95, 5, -1, 82, 7, 72, -5, 78, 59, 23, 72, -19, -64, 
75, -43, 70, -71, -22, -24, -15, -64, 2, 30, -78, -21, -46, 4, 19, 2, 
59, 88, 8, 32, -45, 33, 50, -19, 29, -6, -31, 69, 0, 11, -7, 70, 
85, 80, 14, -44, 73, -51, -27, 50, 27, 35, 77, 90, 18, 89, -41, -23, 
-84, -31, 22, -36, 0, -62, -26, -33, 52, -24, 86, 35, -66, 64, -50, -66, 
90, 32, 21, 67, -18, 11, 84, 36, };



#endif
