#ifndef __LAYER_WEIGHTS_3_FLOAT__H_
#define __LAYER_WEIGHTS_3_FLOAT__H_



#define layer_3_scaling_factor  1000
float weights_layer_3[610]={
-0.003978, 0.006756, -0.015652, 0.001091, -0.008996, -0.030920, 0.004830, -0.003117, -0.007357, -0.006920, -0.000305, -0.029598, -0.035580, 0.001115, -0.028221, 0.003323, 
-0.008891, -0.015941, -0.003805, -0.017189, -0.020886, -0.026737, -0.001937, 0.001274, -0.012912, 0.001492, -0.009198, -0.015574, -0.036088, 0.009517, -0.002046, -0.005971, 
-0.008872, -0.008107, -0.001868, 0.003397, -0.025795, 0.003457, 0.003658, -0.000104, 0.001118, -0.003410, -0.011266, 0.001568, -0.014571, -0.001654, -0.004664, -0.002795, 
-0.004455, -0.016698, -0.005906, 0.005141, -0.021984, -0.028162, -0.027127, -0.009533, 0.003481, -0.011281, 0.009928, -0.012501, -0.771728, -0.009631, 0.004355, -0.018477, 
-0.005622, 0.002557, -0.030407, 0.009738, -0.004322, -0.014459, 0.006034, -0.008964, -0.015016, -0.023730, -0.003017, -0.021991, 0.005851, -0.003261, -0.002821, -0.003716, 
-0.019520, -0.014839, -0.008231, -0.002622, -0.002907, -0.018474, 0.007554, -0.006270, -0.004288, -0.028911, -0.005291, -0.009756, 0.004311, 0.004661, -0.004398, 0.003578, 
-0.005074, -0.015536, -0.003997, 0.005218, -0.004906, 0.005992, 0.006822, 0.004494, 0.005551, -0.010440, -0.007629, 0.000963, 0.004219, 0.006527, -0.013233, -0.000056, 
-0.009222, -0.014959, -0.024433, -0.018048, 0.003592, -0.003832, -0.014554, -0.008474, -0.011811, -0.749766, -0.013343, -0.004947, -0.018581, -0.005249, -0.008075, -0.033898, 
-0.005064, 0.003908, -0.012235, 0.005292, -0.006936, -0.027685, -0.031129, 0.001110, -0.024925, -0.006095, 0.006084, -0.009726, 0.005005, -0.018431, -0.029504, -0.012954, 
0.009294, 0.006410, -0.005577, -0.008911, -0.009425, -0.003033, -0.036577, 0.003036, -0.006148, 0.007503, -0.010331, 0.006606, -0.001043, 0.009788, -0.008559, -0.003989, 
0.009084, -0.000042, 0.005217, 0.006503, -0.006086, 0.009707, -0.004581, 0.003207, 0.000358, -0.001566, 0.004784, -0.001357, 0.005373, -0.001159, -0.009146, -0.020021, 
-0.035635, 0.004090, -0.005935, -0.009270, -0.000281, -0.007636, -0.771787, 0.002805, -0.006171, -0.019792, 0.007836, -0.008563, -0.035283, -0.010176, 0.007197, -0.014511, 
-0.001544, -0.006592, -0.024827, -0.030683, -0.001695, -0.030292, 0.001913, 0.009893, -0.005484, 0.005227, -0.027068, -0.030449, -0.013143, 0.006820, 0.005751, -0.011036, 
-0.006596, -0.006932, -0.013012, -0.018035, 0.005036, 0.002506, -0.002558, 0.009128, -0.005679, -0.008502, -0.009144, -0.021207, 0.002531, 0.001749, 0.006780, -0.004064, 
0.007841, -0.008367, 0.007278, -0.009339, 0.002951, 0.008844, 0.003663, 0.005246, -0.007750, -0.008311, -0.004100, -0.004891, -0.018973, -0.036222, 0.004459, 0.005451, 
-0.009418, 0.006729, -0.015544, -0.762847, 0.002442, 0.003141, -0.005497, 0.004317, -0.002626, -0.030391, -0.007949, 0.008872, -0.008107, -0.003281, -0.000600, -0.021771, 
-0.031697, 0.009055, -0.023415, 0.004049, 0.006997, 0.004296, -0.003884, -0.018411, -0.024644, -0.021336, -0.004939, -0.013419, -0.011682, -0.009111, -0.008690, -0.003008, 
-0.025044, -0.007956, 0.000841, 0.008276, 0.004723, -0.009148, 0.006419, 0.008135, -0.006538, -0.003310, -0.001526, -0.008434, -0.002959, 0.000962, -0.006072, 0.009927, 
-0.013771, -0.001927, -0.009635, 0.001256, 0.008678, 0.001185, 0.006741, 0.005032, -0.015467, -0.025951, -0.018507, 0.000391, -0.005273, -0.018038, -0.006264, -0.010358, 
-0.779501, -0.009442, 0.000414, -0.006036, -0.001808, 0.001304, -0.027708, 0.003052, 0.008087, -0.008577, -0.004780, 0.007047, -0.026638, -0.030025, -0.009431, -0.035257, 
-0.005542, -0.002782, 0.001816, 0.001820, -0.009512, -0.032475, -0.016916, -0.001302, -0.009378, -0.023527, 0.008138, 0.003803, -0.012257, -0.034175, 0.009018, -0.002826, 
0.002066, 0.002913, 0.000637, 0.007833, -0.008039, -0.011719, 0.006939, -0.004674, 0.004056, -0.007212, -0.003215, -0.009087, 0.009389, -0.016000, 0.002341, -0.000601, 
0.004739, -0.003079, -0.007853, 0.007873, 0.006348, -0.009362, -0.019727, -0.022043, 0.008359, 0.008874, -0.023379, 0.001621, -0.011959, -0.784631, -0.014818, 0.002898, 
-0.003078, -0.007799, -0.009176, -0.022747, 0.000647, 0.007931, 0.000843, 0.006523, 0.000528, -0.021970, -0.037343, 0.006253, -0.029915, 0.000599, -0.001923, -0.009364, 
0.008174, -0.025367, -0.027220, -0.022641, -0.007411, -0.008159, -0.017862, 0.001654, -0.000027, -0.000502, -0.027043, -0.000017, 0.006374, -0.005662, -0.001950, 0.006284, 
-0.006574, -0.006916, -0.015117, 0.006490, 0.005347, 0.008179, 0.003412, -0.009843, -0.012805, -0.000719, -0.008038, 0.000155, 0.006220, -0.000735, 0.002480, -0.003183, 
0.004595, -0.007497, -0.011803, -0.027105, -0.030936, -0.005408, 0.006298, -0.016538, 0.009420, -0.008612, -0.769422, -0.000936, -0.001105, -0.010415, 0.005922, -0.005593, 
-0.027038, 0.006180, 0.009804, -0.003667, -0.009707, 0.006691, -0.015784, -0.016126, 0.002149, -0.028349, 0.007642, 0.006531, -0.008768, 0.003380, -0.018387, -0.028354, 
-0.026216, -0.006793, -0.013186, -0.013337, 0.005694, -0.008902, -0.013727, -0.021092, -0.009471, -0.002794, -0.009450, 0.004270, 0.002844, -0.007989, 0.005856, -0.010118, 
-0.007204, 0.007469, 0.005496, -0.009321, 0.002263, -0.000453, -0.006106, -0.021098, 0.000001, 0.002350, 0.005329, 0.004647, 0.000359, 0.004780, -0.005110, -0.002906, 
-0.019705, -0.029839, 0.008938, 0.003897, -0.015279, 0.009645, -0.004953, -0.764760, -0.004294, 0.007460, -0.004617, -0.001792, -0.000497, -0.031131, -0.006290, 0.005898, 
0.000742, 0.008494, -0.008539, -0.031458, -0.024190, -0.002876, -0.031826, 0.005595, 0.001330, 0.002196, 0.007797, -0.025875, -0.030008, -0.021216, -0.002351, -0.000688, 
-0.013031, 0.009274, 0.008528, -0.016584, -0.024152, 0.001864, 0.004694, 0.009824, 0.005123, -0.006540, 0.002338, 0.004684, -0.013736, 0.005119, -0.003411, 0.000269, 
-0.003494, 0.008851, -0.014437, -0.009726, -0.003105, 0.008487, -0.001632, -0.000755, 0.003674, -0.011521, -0.003347, 0.009496, -0.009671, -0.016195, -0.035658, -0.006727, 
0.003823, -0.006455, -0.000253, -0.006039, -0.773202, 0.001583, -0.005852, -0.016663, 0.006955, -0.004129, -0.032481, 0.008075, 0.001372, -0.002300, -0.000349, -0.005461, 
-0.024396, -0.022465, 0.002371, -0.021385, -0.007405, 0.006809, -0.013661, -0.006532, -0.012679, -0.015145, -0.022552, 0.003035, -0.004857, -0.007686, 0.005621, 0.003658, 
-0.005656, -0.035282, 0.009517, -0.003782, 0.004762, -0.002658, 0.008481, 0.000548, -0.003296, -0.025078, 0.008731, -0.002479, 0.004771, 0.009394, 0.002087, -0.001212, 
-0.001237, -0.005704, 0.005828, 0.004120, 0.007726, -0.004565, -0.016247, -0.002063, -0.006960, -0.020869, -0.014427, -0.034352, 0.001851, 0.005974, -0.016113, -0.009178, 
-0.006053, -0.763591, };



#endif
